{
  "tile_size": 4,
  "W": [
    -0.43731799721717834,
    0.09546705335378647,
    -0.19317063689231873,
    0.35174626111984253,
    -0.010495718568563461,
    -0.0031959563493728638,
    -0.07981182634830475,
    0.18420197069644928,
    0.3411591649055481,
    0.3379199802875519,
    -0.14692912995815277,
    -0.48642879724502563,
    0.34440767765045166,
    -0.00294659286737442,
    0.03498297184705734,
    -0.09480802714824677,
    -0.17332744598388672,
    0.048298295587301254,
    0.10200866311788559,
    0.22704395651817322,
    -0.12330850213766098,
    -0.13593599200248718,
    -0.03351551666855812,
    0.27133452892303467,
    0.10535216331481934,
    -0.35196802020072937,
    0.056848861277103424,
    -0.09974300116300583,
    0.29703497886657715,
    0.33731934428215027,
    -0.19396516680717468,
    0.02248236909508705,
    0.0415869876742363,
    0.10106360912322998,
    0.0649692639708519,
    0.07697485387325287,
    -0.24394343793392181,
    0.5636536478996277,
    0.07825940102338791,
    0.19857344031333923,
    0.007077399641275406,
    -0.23537343740463257,
    0.02826753258705139,
    -0.05523386597633362,
    0.08997291326522827,
    -0.15305569767951965,
    -0.032890040427446365,
    -0.052658647298812866
  ],
  "b": 0.062125325202941895
}